<?xml version="1.0"?>
<opencv_storage>
<haarcascade type_id="opencv-haar-classifier">
  <size>20 20</size>
  <stages>
    <_>
      <maxWeakCount>13</maxWeakCount>
      <stageThreshold>-1.4436624050140381e+00</stageThreshold>
      <weakClassifiers>
        <_>
          <internalNodes>
            0 -1 0 5.8396178484916687e-03</internalNodes>
          <leafValues>
            -8.0574774742126465e-01 8.1267738342285156e-01</leafValues></_>
        <_>
          <internalNodes>
            0 -1 1 7.4883178829401731e-02</internalNodes>
          <leafValues>
            -6.6171050071716309e-01 5.4626488685607910e-01</leafValues></_>
        <_>
          <internalNodes>
            0 -1 2 1.3387373998761177e-02</internalNodes>
          <leafValues>
            -5.6220030784606934e-01 4.7205719351768494e-01</leafValues></_>
        <_>
          <internalNodes>
            0 -1 3 2.8604170471802354e-02</internalNodes>
          <leafValues>
            -5.0606452465057373e-01 3.8816994428634644e-01</leafValues></_>
        <_>
          <internalNodes>
            0 -1 4 4.0216960034310818e-02</internalNodes>
          <leafValues>
            -5.5357891321182251e-01 2.3841321468353271e-01</leafValues></_>
        <_>
          <internalNodes>
            0 -1 5 3.2129309118002861e-02</internalNodes>
          <leafValues>
            -3.6129519343376160e-01 4.7525715827941895e-01</leafValues></_>
        <_>
          <internalNodes>
            0 -1 6 9.6963405609130859e-02</internalNodes>
          <leafValues>
            -4.0246221423149109e-01 3.8141274452209473e-01</leafValues></_>
        <_>
          <internalNodes>
            0 -1 7 1.1896770634293556e-01</internalNodes>
          <leafValues>
            -3.8886555075645447e-01 3.7137579917907715e-01</leafValues></_>
        <_>
          <internalNodes>
            0 -1 8 5.0000000745058060e-02</internalNodes>
          <leafValues>
            -2.5717136263847351e-01 5.0074780941009521e-01</leafValues></_>
        <_>
          <internalNodes>
            0 -1 9 3.1071198731660843e-02</internalNodes>
          <leafValues>
            -5.1234102249145508e-01 2.2849309444427490e-01</leafValues></_>
        <_>
          <internalNodes>
            0 -1 10 2.7819098532199860e-02</internalNodes>
          <leafValues>
            -3.1893491744995117e-01 3.7846937775611877e-01</leafValues></_>
        <_>
          <internalNodes>
            0 -1 11 1.0565470531582832e-01</internalNodes>
          <leafValues>
            -2.8909987211227417e-01 4.2234301567077637e-01</leafValues></_>
        <_>
          <internalNodes>
            0 -1 12 6.7611642926931381e-02</internalNodes>
          <leafValues>
            -3.8217902183532715e-01 2.9633936285972595e-01</leafValues></_>
      </weakClassifiers></_>
  </stages>
  <features>
    <_>
      <rects>
        <_>2 7 10 10 -1.</_>
        <_>2 7 5 5 2.</_>
        <_>7 12 5 5 2.</_>
      </rects>
      <tilted>0</tilted></_>
    <_>
      <rects>
        <_>1 4 18 8 -1.</_>
        <_>7 4 6 8 3.</_>
      </rects>
      <tilted>0</tilted></_>
    <_>
      <rects>
        <_>0 0 20 20 -1.</_>
        <_>0 0 10 10 2.</_>
        <_>10 0 10 10 2.</_>
        <_>0 10 10 10 2.</_>
        <_>10 10 10 10 2.</_>
      </rects>
      <tilted>0</tilted></_>
    <_>
      <rects>
        <_>5 4 10 9 -1.</_>
        <_>5 7 10 3 3.</_>
      </rects>
      <tilted>0</tilted></_>
    <_>
      <rects>
        <_>7 6 6 7 -1.</_>
        <_>9 6 2 7 3.</_>
      </rects>
      <tilted>0</tilted></_>
    <_>
      <rects>
        <_>4 6 7 6 -1.</_>
        <_>4 8 7 2 3.</_>
      </rects>
      <tilted>0</tilted></_>
    <_>
      <rects>
        <_>6 4 8 12 -1.</_>
        <_>10 4 4 6 2.</_>
        <_>6 10 4 6 2.</_>
      </rects>
      <tilted>0</tilted></_>
    <_>
      <rects>
        <_>5 5 7 8 -1.</_>
        <_>5 9 7 4 2.</_>
      </rects>
      <tilted>0</tilted></_>
    <_>
      <rects>
        <_>8 5 5 9 -1.</_>
        <_>8 8 5 3 3.</_>
      </rects>
      <tilted>0</tilted></_>
    <_>
      <rects>
        <_>0 10 14 6 -1.</_>
        <_>0 12 14 2 3.</_>
      </rects>
      <tilted>0</tilted></_>
    <_>
      <rects>
        <_>2 12 16 8 -1.</_>
        <_>10 12 8 4 2.</_>
        <_>2 16 8 4 2.</_>
      </rects>
      <tilted>0</tilted></_>
    <_>
      <rects>
        <_>1 1 10 14 -1.</_>
        <_>6 1 5 14 2.</_>
      </rects>
      <tilted>0</tilted></_>
    <_>
      <rects>
        <_>11 0 6 9 -1.</_>
        <_>11 3 6 3 3.</_>
      </rects>
      <tilted>0</tilted></_>
  </features>
</haarcascade>
</opencv_storage>
